32 100
你 0.0022101644 0.00469336 -0.0049148053 -0.0046244403 0.0030281963 0.00093707256 -0.0013987303 0.004487401 -0.0040100305 0.0030574491 -0.00015069498 0.0036430294 0.0009978632 -0.0034536147 -0.0023159045 0.0031783096 0.0014614449 -0.0037529785 -0.003777634 0.00024230639 0.0048290202 -0.0024652875 -0.004034574 -0.0037394129 0.0034028962 -0.0040111216 0.004818417 0.0016955445 -0.004973616 -0.0015696276 0.0036286423 0.0042795623 -0.0043202527 -0.004881372 0.00019613933 -0.00037681125 -0.0022237087 0.0035881735 -0.0008069766 0.004610505 0.0012513492 -0.00070005003 0.00064070476 -0.0007234202 0.0011399393 -0.0012378066 -0.00014869077 0.002864685 0.0011450415 -0.004872887 0.0042324783 -0.0038882273 -0.0009821816 -0.00078563625 0.00039636297 0.0012593181 0.0017658551 0.00016493164 -0.0014747924 -0.0038179825 -0.0011593574 -0.0024267249 -0.0014034843 -0.003987997 0.0021713981 -0.0035461653 0.0018676356 -0.002747796 0.0013784985 -0.001068065 -0.0022145838 0.002508842 -0.00498767 -0.00079262536 0.0027524014 0.0021525999 4.9265567e-05 -0.003366155 -0.0040949835 0.0034062983 0.002080752 0.0020698654 0.004255322 -0.0029719148 0.0010740263 -0.00065528275 -0.00017287629 -0.0031803339 -0.00085263 0.0018080492 -0.002808392 0.0014632563 -0.0015750898 -0.00019983668 0.004066027 0.00080008013 -0.0047372184 -0.0015723926 -0.0035974842 -0.00073447265
拥有 -0.0018442362 0.0016332539 -0.0026074927 0.003451055 0.0025408575 0.002530449 -0.004850949 0.0014333981 -0.003928221 -0.004148156 -0.003378579 0.0010527689 0.0036632223 0.0015895488 0.00084281666 -0.0040342594 0.0025112424 -0.0006968067 0.0023554205 -0.002322669 9.521283e-05 -0.0037288307 -0.0040809875 0.0027257847 -0.004558268 -0.0027292287 -0.0048003006 -0.0038517807 -8.326024e-06 -0.0037987905 0.003980036 -0.0005772612 -0.0020767832 -0.0035028392 0.002521425 -0.0027008133 0.0037546493 0.0004896461 0.0034878375 -0.0035004253 0.0024988316 0.0035500918 -0.0012441671 -0.0038715415 0.004495356 -0.0015919595 -0.0032586888 -0.0017208462 -0.002707023 -0.004454702 0.0005798973 -0.0007614796 0.0010735858 0.00026117405 -0.00093591865 -0.0038242035 0.000510341 0.001157464 -0.003815204 -0.004788723 0.0020837076 0.0032369336 -0.001978808 -0.0011528879 -0.000636701 -0.004438135 -0.0037656561 0.0037096273 -0.0011628086 0.00044708094 -0.003632121 -0.0021311848 0.0016387976 0.002864737 -0.0018231701 -0.002447912 -0.0013892823 -0.0016596375 -0.0034782742 0.00021543493 0.0047277855 -0.004288759 0.0029379968 -0.001981697 -0.0012198305 0.0037722653 0.0018735803 -0.0049846 -0.00310728 -0.0006704689 -0.002187767 -0.0028298735 0.0047754254 -0.0027323652 -0.0038020115 -0.0019315421 0.0037739258 0.0007942724 -0.0046425653 0.0038975999
哪些 -0.00029100198 3.3902004e-05 0.0014412431 0.00057970174 -0.0030943977 -0.0024796836 -0.004355676 0.003864781 -0.00068114046 0.00043388084 0.0048635155 0.0034782216 -0.002496705 -0.003719859 0.00412421 0.004893304 0.0028244955 0.002527907 0.0047425153 -0.000718066 0.0031922096 -0.0010868842 0.0011995528 -0.00059162546 -0.0030842326 0.00082070427 -0.00081819156 0.0025820918 -0.0014434331 0.00033838255 0.0009787856 0.0012945789 -0.004983968 0.0028774245 0.0013609366 -0.0020720558 -0.004334876 -0.0019910745 -0.004589688 -0.004064939 -0.00365421 0.0029451558 0.0023188978 -0.0028941869 -0.003467676 -0.0045590852 -0.0035381494 -0.0027270257 -0.0024119401 0.001123603 -0.003467515 -0.0018552225 -0.0043112496 -0.004735065 -0.0037282305 0.0010405434 0.004507079 0.0022145365 0.004365552 0.0036724014 0.0047791507 -0.0018195082 0.00014251284 0.0034765461 -0.003893811 -0.0020741683 -0.0013384479 0.0026718294 -0.004975404 -0.0013230944 -0.0039971196 -0.003940704 0.002708891 -0.0003354936 -0.0045374585 -0.004900992 0.004511537 -0.00096231233 0.0041602515 -0.0037418169 -0.001943345 0.0007627653 -0.00054341694 -8.917507e-05 -0.0016257453 -0.0012696641 0.004713645 -0.0037606847 0.0048968457 -0.0038779234 -0.0013881987 -0.0022208493 0.0037613707 0.00046044635 -0.00088239927 -0.0017206203 0.0043040663 -0.0045356704 0.004543432 -0.003045337
藏品 0.0024145595 0.002020562 0.00081633683 -0.003915591 -0.00090917805 -0.0015803808 -0.0025655185 -0.0022545957 -0.0018943017 0.0005102372 0.0040943054 -0.0020375352 0.0034839725 0.0017571938 0.0027960245 0.0012775492 -0.0042877304 0.0023067868 -0.0049880072 0.00030040788 0.004854259 0.0016616881 0.0039798096 -0.004751265 0.0019696937 -0.004940505 0.0012456961 0.004794237 0.0026000063 -0.003551072 0.004528707 -0.0014867526 0.00042834692 0.00010399707 -0.00041535962 0.00083154486 -0.0023290867 -0.0015432644 -0.002165191 0.0032664174 0.0028106351 0.004149596 0.0011258544 0.0006807344 0.002589447 0.00037004473 -0.004487266 -0.001790012 0.0023944587 -0.0033410257 -0.0036938572 0.004139187 -0.00045261066 0.0003778059 0.0036003282 -0.0012875479 0.0038039545 0.00037678238 -0.0029517745 -0.0019149536 -0.0013650798 -0.0026997225 0.0018673437 0.0004950436 -0.004427337 0.0005861968 -0.0014331907 -0.0006229747 0.0012735846 0.0015711994 -0.0047470313 -0.0024661021 0.0015582484 0.0019154185 0.001840753 -0.0020870238 0.00073612155 0.00076281745 -0.00017907331 0.0041739866 -0.0035211463 -0.0024896502 -0.0013481695 -0.004325444 0.0008358718 -0.004046924 -0.004268344 0.00178708 0.00025958708 -0.0043346887 -1.6855076e-05 0.0031117788 -0.0032092433 -0.004371755 -0.00045077922 -0.0020555079 0.0016733338 -0.00019806996 0.00075706607 0.0033818502
？ -0.0010943352 -0.0016195767 0.002862732 -0.0031245179 0.0035955105 0.0046359804 0.003485079 0.0010560029 -0.0039955797 -0.004851604 0.0022520283 -0.00088809896 -0.0043850658 -0.0001643491 0.0019008624 -0.0029058568 0.0030437931 0.0035351608 0.003950162 0.0004915083 -0.0019199119 -0.0035793185 0.002833859 0.0034986064 -0.0024334108 0.0037136832 0.0029116897 -0.0010082554 0.0031427164 -0.00047194352 -0.004915308 -0.00030826265 -0.0006030416 0.0026886691 -0.0028795612 -0.0037003309 4.023034e-05 -0.001973887 0.0045343796 -0.002174853 0.0019388916 -0.001776871 0.0021488331 -0.00020356849 0.0030275062 0.0008944287 -0.0012307256 -0.0031941496 -0.00342562 -0.00086940406 -0.0049274233 -0.0022376364 -0.0018224984 -0.000955692 0.004693995 -9.835698e-05 0.0043870164 -0.0035756337 0.0014312719 -0.004024946 -0.0036588823 0.0010325597 -0.0035715639 0.00047013536 0.0018053646 0.0032313475 0.004366597 -0.004458155 -0.003907067 0.0014777035 -0.0023708898 -0.0035869232 0.0041621877 0.0019986122 0.0018021287 0.0012006806 -0.0007262458 -0.004608312 -0.002468726 0.00045920955 0.0015518735 -0.0007652575 0.0037188884 -0.0024805819 0.0010069362 -0.004242529 0.001634025 -0.00280739 0.002335744 0.0039816787 0.0002261363 0.004353161 -0.0034136777 0.0012276564 -0.0015581357 0.0014816034 0.0019240491 0.0024907058 0.0048260633 0.0021480964
为什么 9.991834e-05 -0.00093798805 -0.0034612468 0.00054082554 0.0011839746 -0.00017445069 -0.0034370534 0.003045369 -0.0011831094 -0.0012403112 0.0038457653 -0.0041520284 0.0048046494 -0.0011230153 0.004723455 -0.0032752655 -0.0010488504 0.0043895794 0.0019265017 -0.00037329178 -0.0014670419 -0.00093092304 -0.004237005 0.0029675337 0.004499289 0.0011480264 -0.0047379904 0.003239859 0.0012279772 -0.0005542338 0.0039010365 0.003039835 -0.0005941889 -9.140652e-05 0.0016531181 -0.00074657425 0.0014536679 -0.0032256413 8.724257e-05 0.0039009294 0.004971287 -0.0046489327 0.0002677031 -0.004687465 0.0026133559 0.0009591067 -0.004499506 0.004889384 0.0017024074 0.001800058 0.0048460504 -0.003072459 -0.0008056583 -0.002557847 0.00094364444 -0.0008506491 -0.0010009916 -0.0008940096 0.0009260792 0.0011749966 -0.0005352609 0.00035954965 0.0023770034 0.0024785195 0.004454395 0.0035020001 0.00095482636 0.0015561325 0.00056922436 -0.0018648738 -0.0029817307 0.003779822 0.0008816491 -0.004442716 -0.002995914 0.0017337357 0.0002622027 -0.0035153513 0.0048249075 -0.0041173506 -0.0045783464 -0.004182833 -0.0048945234 0.00020287512 -0.0017284686 -0.00015669176 -0.0023943202 -0.0024045366 0.0015246351 0.0015179636 -0.0049146255 -0.0021031273 0.004527769 -0.0005471669 -0.0026583695 0.0042980853 -0.0010642367 -0.002908541 -0.0032031285 0.0018195482
接吻 -0.00027786754 0.0012279795 -0.0033876277 0.0037048021 0.0042202612 0.0038760677 0.004200382 0.0025495705 -0.0009310264 0.0040642256 0.0032178983 0.00076793507 0.0043547954 -0.0046362155 0.0045509003 -0.0048733926 0.0004620175 0.0018880675 0.0018146643 -0.003865152 -0.0045187287 -0.0036853827 -0.0037790893 0.0021868562 0.0028768973 0.0009657494 0.00036303978 -0.0042018667 -0.0012430435 0.0011619758 0.003923999 0.0001358185 0.0036161086 -0.0046857074 0.0018727798 0.0016436772 0.00050597824 0.00041738432 0.003993014 -0.003388934 0.0040200967 0.00073471945 -0.0046563437 -0.0031390027 -0.0038987682 -0.0041838097 0.0041839806 -0.0046268916 5.747564e-05 -0.0031887237 0.0036447486 0.0045146737 0.0013897596 0.0040263953 0.0012099133 0.00024086423 0.0035007335 0.0003381623 -0.0019481457 0.003971857 -0.0024435103 5.8321748e-05 0.003548392 -0.0024759828 0.0030898768 0.00086296024 -0.0011651306 0.0011143223 0.002541244 0.0020296825 -0.0024966896 0.0037990725 0.0013180114 0.0031900145 -0.0014250691 0.0019382942 -0.0028124433 -0.0022245555 -0.003008511 -0.0010534334 -0.0048749414 -0.0034802048 -0.004713415 -0.002292459 -0.0002996307 -0.0020978039 0.0013482808 0.002365366 -0.0020638418 0.00024357159 -0.0032923704 -0.0018941313 -0.0007927143 -0.00092334347 -0.0030445778 0.004404504 -0.004386034 0.0042095426 0.0016555036 0.004165997
的 -0.0014020323 -0.00017313613 0.003561383 0.004324737 0.002467635 0.0010898835 -0.0018189363 0.0008732206 -0.0012348478 -0.0019643486 0.0008517392 -0.0024950749 0.0027320082 0.0028000767 -0.001119331 -9.751972e-05 0.0029836204 0.0020711445 -0.004625669 0.0042133294 0.0048507852 0.0016605575 -0.0035052705 0.0022349101 -0.0043523833 0.001419832 0.00073005445 0.00439985 0.00020361086 0.0030992348 0.0013416815 -0.004351589 -0.002142236 0.0037621697 -0.0015296738 -0.0023072069 0.002843882 -0.0045658085 -0.001246342 -6.3935295e-07 -0.0046814405 -0.002215321 -0.0046758763 0.0013784589 -0.00034903176 0.0033873115 -0.0039835116 -0.00018952414 -0.0012560247 -0.0027706581 -0.002794702 -0.00019682804 0.0007965537 0.0038274378 -0.0012424362 0.0025057779 0.0018534046 0.0021720766 0.0046687014 -0.0044820057 -0.0028198916 -0.004097605 0.0027048546 -0.004677165 -0.0035446207 -0.0021089541 0.0026621209 0.001134296 0.0037191827 -0.0026247709 -0.0015115661 0.0004361486 0.0007623513 -0.001937263 0.0005852324 0.004323845 -0.0011453973 0.0016810829 0.0015066164 0.002328571 0.0043829167 -0.0041643986 0.0031530652 -0.0031060926 -0.0042411177 0.0014870004 0.0027178675 0.00031817378 -0.0019204146 0.0045570014 -0.00041635148 0.0018958198 -0.0017449616 -0.003897206 -0.0010711686 0.0038766032 -0.00019404711 0.0024671848 -0.0024603468 0.0013960106
时候 0.003154235 -0.0037556696 -0.00017579459 0.0010785176 -0.0044565476 0.0025232546 -0.00013824739 -0.0041768793 -0.0043368083 -0.0021366894 0.0010850574 0.0044765193 -0.002957717 0.00497243 0.00493724 -0.00019250158 -0.0021180285 -0.0035848278 0.0033294512 0.0004924517 0.0007558209 0.0040600374 -0.0049031777 -0.004502671 -0.0025517158 0.0026122085 0.0033594128 0.0024776845 -0.004918529 -0.0048762118 -0.0021783405 0.0006267349 -0.0048831706 -0.0021654207 0.00060836365 -0.0024185735 0.0043668216 -0.00048584864 -8.328399e-05 -0.0006188168 0.0027495003 -6.5220054e-05 0.0037097046 -0.0047424063 -0.0021316856 0.0016191234 -0.0032950393 -0.0034798686 -0.00016069459 -0.0037535464 0.0007094089 -0.0039571812 -0.002932524 0.0028420938 0.0021876525 -0.00016713142 -0.00092371274 -0.004886197 0.0023627407 -0.001251549 -0.0026106315 -0.00080017047 -0.0032620183 -0.004879251 -0.00046905642 0.003947802 0.0009749355 0.0039761057 0.0043761805 -0.0008444581 -0.004200221 -0.0031919656 -0.0040421686 0.00042949338 -0.004311148 -0.0013600225 0.0032970784 0.00096055213 0.0019173352 -0.0034195178 0.0026402362 -0.00396847 0.0027210973 -0.0012221467 0.0010079378 0.0019429307 -0.00032480527 0.0018947232 -0.004837677 0.0014490546 -0.0018476157 -0.0007436513 0.0049195644 0.0026440076 0.004026139 0.0022125174 -0.0020326208 0.0017197472 0.0038594035 0.004742083
男生 0.00480269 0.004487464 0.0014865818 -0.00027377903 0.0005258559 0.0038816324 -0.0030558538 -0.004137616 0.0042352723 -0.0049109105 -0.00092150224 -0.0017917496 0.0024397806 -0.0012283868 0.0019920827 -0.0035946625 0.0014296281 -0.0014962142 0.0020188307 0.0040937727 0.00031655468 0.0008423012 -0.0012622857 0.0037908908 0.00047748303 0.0005935859 0.0011784919 0.0022370135 0.0044934973 0.0034253523 -0.00016226759 -4.0266663e-05 -0.0026384336 0.0026964252 0.0012081056 -0.0009312886 -0.004279804 -0.0028645045 -0.0032519298 0.001377196 -0.004239031 -0.0018439179 -0.003055945 0.0041757934 0.0036661476 0.003352031 0.0036566313 0.0039417353 -0.0027933018 -0.0022937423 0.0037010545 0.002448535 0.004886075 0.004238681 -0.0016169727 0.0033339094 -0.00020496966 0.0025550579 0.0041348683 0.004255714 -0.004580735 0.0022040573 0.0031292196 -0.00047300896 0.0046805823 0.00047393935 0.004852445 -0.0036995905 -0.00014094729 0.0035578832 -0.0016889591 0.0005704439 -0.0038928366 0.0017511519 0.0035632858 0.004299706 -0.0037828493 0.0010888386 -0.0026333688 -0.0005668765 -0.002293623 -0.00025967462 0.0021388 0.0027039582 -0.00031996332 -0.004621559 -0.0031602792 -0.0018381553 0.00450458 -0.0039063185 0.0029815333 0.002676289 -0.0028830282 0.0010564611 -0.0015546493 0.004114003 0.0013616583 -0.0025965655 0.00045011798 0.0016203206
会摸 -0.0012880408 -0.0018423044 0.0013443888 0.0042146305 0.002493884 -0.003091361 0.00011950033 -0.0025903136 0.004969922 -0.003178798 0.0031184796 0.0020483858 -0.0004399945 0.0027785082 0.0034238314 -0.0017520247 -0.0017543007 0.0008863034 9.095436e-05 0.0033145584 -0.0040998273 0.0035864878 -0.0042221663 0.0010626619 0.00097255874 0.0017939019 0.0010489994 -0.0010751905 0.0032558357 0.0043220688 -0.00022700801 0.001171968 0.0013283705 -0.0019129973 0.004693331 -0.0005864147 -0.004882819 -0.0030413042 -0.0024992293 0.0046755793 -0.0029880428 -0.0033267797 0.0023517604 -0.00028515235 0.0001308429 -0.004425775 0.0004476849 0.0028601242 0.0024933089 -0.0042935647 0.00051630894 0.0046441397 -0.004678358 -0.0018437123 -0.0005949652 0.0008257781 -0.00414508 0.00094191777 0.0029284358 -0.003629887 0.0037048915 -0.0027074558 -0.00031218212 0.00029756408 -0.0007820409 0.0019311667 -0.004741259 -0.0015273725 0.0037505692 0.0043166755 0.0021019233 -0.0012049228 0.0011479734 -0.00049756654 0.0021550213 -0.0043935156 -0.0010705222 -0.0023963903 -0.0014307618 -0.0021156264 -0.0041925074 0.00447423 -0.004306045 0.0024103639 -0.004447181 -0.0021635497 -0.001925274 -0.0008483087 0.0045820894 -0.0008049039 0.0037534926 0.0048453975 -0.0001330371 -0.0017745472 -0.00020861486 0.0035487805 -0.002381805 0.003833685 -0.00290892 -0.0049255555
女生 -0.0044908477 -0.004347341 0.0011964277 -0.0030860142 -0.003264486 -0.0029460483 0.0029634098 0.00041841622 -0.0047889114 -0.002565894 -0.0025375288 -0.003711503 0.0043897005 0.00427304 0.0013819952 -0.004966479 0.0025893855 0.0038404204 0.0041975155 0.0031273644 0.00070483005 0.00021224096 0.003295985 0.0030705426 -0.004272301 -0.0038166181 -0.003814666 -0.0022794043 -0.0035900627 0.0041099675 -0.00039865496 -0.003688627 -0.003222559 0.00034486223 -0.0046403944 -0.0011806125 0.002301847 -0.0038063228 0.00030623563 9.967433e-05 -0.0029929732 0.0018741484 -0.0039938493 0.0045788074 -0.0009457171 -0.0035970705 0.001578155 -0.003570841 0.0006021238 -0.0048868526 0.0025072228 0.00078261737 -0.0013959599 -0.001746034 0.0022300528 -0.0017729478 0.0017548567 -4.7747977e-05 0.00088015245 -0.004431766 0.001156521 -0.0019696492 0.004356933 -0.0031180833 0.002705304 -0.0032155789 0.0017392621 0.0027024895 -0.0030585926 0.0045918813 -0.000287971 -0.00263134 0.0033585 0.001288576 0.0028212983 -0.003688126 -0.0034415633 -0.0013646488 0.0025714217 0.0021318085 0.0013567228 -0.0009093066 -0.0020401792 0.004758848 0.0025729616 0.0018635886 -0.0033759964 0.00011678925 -0.0048732916 0.0036850264 0.00018710457 0.0032555433 0.00086278934 0.00053790165 0.0037020966 0.0044685015 0.004320668 0.0002231379 -0.0010243785 0.002279433
胸部 0.003139981 -0.004236876 -0.0013088374 -0.0017272097 -0.0014508897 -0.0038469718 -0.0032152724 0.001987888 0.0042834217 -0.003000509 -0.0022004747 0.0007074489 -0.0023880284 0.0028748093 -0.0008408739 -0.00485202 0.0041937754 0.0009227325 0.00075033307 -0.0009402768 -0.001561725 0.004588075 0.0020556687 0.0025813328 -0.002918616 -0.0023773015 0.0038742656 0.0010973811 -0.00057145394 -0.0038128488 0.0049881134 -0.0012974499 0.0039047785 0.001915087 0.0046945773 -0.00265823 0.0042380067 -0.002713106 -0.0037786006 0.0030836593 -0.003715773 0.00071985833 -0.0007870053 0.0049310736 0.004992361 0.004758343 -0.0045485455 0.000704485 0.00012109103 -0.0038003568 0.00036984868 0.0036757635 -0.0028130864 0.00073685544 -0.0016242636 -0.00053403573 0.00459183 -0.0032887172 -0.0033012938 -0.0015549576 -0.0042638616 0.0046011545 0.0008690874 -0.0019893663 0.0006786338 -0.000644865 -0.0007819426 -0.001686126 0.0012978418 0.004373707 -0.0028679115 -0.001901282 0.0045260545 -0.0010640444 -0.0012277949 -0.002925468 0.00071793934 0.0035695527 -0.000881915 0.0010143667 -0.003966493 0.0044472395 -0.0030767696 -0.00017178757 0.0038680742 -0.0034483415 -0.0010914193 0.0048097568 -0.0025955348 -0.004010663 -0.00058173155 -0.0035983156 -0.0046788286 -0.0020682884 -0.0005386849 -0.0026943134 -0.0040004156 -0.00458722 -0.0020295382 -0.0027828098
汽车 -0.0027937472 -0.003052312 0.0009027086 0.004048992 -0.0008671223 -0.0024727737 -0.0006969292 0.00058696186 -0.004866958 0.0033936389 -0.00083789416 0.003732793 0.00042773504 -0.0016236245 0.0044991393 0.0031918176 0.0035186913 -0.0041020643 -0.000286852 -0.0044910405 -0.0010641329 0.00023074681 0.0016011093 0.0017494112 0.004920722 0.0024783057 0.0015207441 -0.0047085346 -0.004001765 -0.0024512475 0.004459711 0.001384194 0.0013344488 -0.004264017 0.0046735127 -0.0006748438 0.004637723 0.0036140177 0.003981904 -0.002385053 -0.0029532057 0.0024636071 -0.0014588451 -0.0023450921 -0.0018477512 -0.002289949 0.0040936638 0.00097566145 0.002083764 -0.0032485337 -0.0038796663 -0.0040783277 -0.0026819026 -0.00089573814 0.0046719797 0.0037685828 -0.003853994 -0.0037038377 0.0012109606 -0.0015686506 -7.0089474e-05 0.0023745168 0.0032207826 0.0018093996 -0.0040744455 0.0028354963 -0.0033779894 0.004178726 -0.004248011 -0.00053853216 -0.000679635 0.0017238408 0.00058036996 0.0029602032 0.004408732 0.0014968733 0.0002665408 0.0015564938 0.0009708279 -0.0015790206 -0.0034739655 -0.0010596188 -0.0018776339 -0.00010226015 -0.004403593 -0.0013388372 0.0024558506 -0.0039290087 -0.0016984588 0.004364049 0.0014997427 -0.00071265316 0.0026377249 0.0026705316 0.0026769754 0.0037368247 -0.0026486283 -7.8391284e-05 0.00022797752 -0.004548838
行业 0.00037434837 0.0025510774 -0.0024314153 0.0021484927 0.002465597 -0.0014800548 -0.0035277633 0.0002985173 0.0021430184 -0.0045654136 -0.0046464317 0.0043606022 -0.0022570847 0.0039638877 0.00063162204 0.0008695596 -0.0044612233 0.0018652421 -0.004218201 0.0024492075 -0.004083409 -0.0034661924 -0.0033379993 -0.0025056188 -0.00029287208 0.0037710285 0.0012421524 0.003414658 -0.004735511 0.0040118704 -0.004805869 -0.004549599 0.0013366728 -0.004809923 0.004042049 -0.004702083 -0.0015598726 0.00047075562 -0.0022643358 0.0031265216 -0.0020966274 0.0020660395 0.0010457514 0.0017958991 0.0039635785 0.0006296956 0.0020869584 -0.0015609777 -0.002212113 -0.0007325858 -0.0018315148 -0.0034652536 0.0022103507 0.0028066305 0.0017944835 -0.0037094424 -0.0028041434 0.0036054794 0.0017129015 0.0016803783 0.00087089604 0.00031225802 0.0038346406 -0.0032500636 0.0014423383 0.0011039907 -0.0028177302 -0.0016454947 0.0032811565 -0.0032996344 -0.0003154492 -0.0011647849 -0.0009600818 0.00064853905 -0.0026221562 0.0012562461 0.003338146 -0.0035153513 3.061071e-05 -0.0030560247 0.0025180397 -0.0021135372 -0.0049483734 0.0033279704 0.0038353242 -0.0002906276 -0.004735268 -0.00036098855 -0.0032419567 0.0032866374 -0.00020030327 0.0049414523 0.0042077564 -0.0039895447 0.0028831465 -0.00387574 0.001916402 -0.0018808239 0.00210953 -0.0035996796
有 8.621439e-05 0.002523656 0.0028331326 -0.0014452247 0.001785262 0.0008349754 -8.284487e-05 0.002610547 0.00044938503 -0.0022520625 0.0039634258 0.0027982001 -0.0026735626 0.00076252175 -0.0039415215 0.0025832043 0.0046746787 -0.0029687034 -0.002642389 -0.0019012408 -0.001355543 0.0021765274 -0.004960074 -0.0036720817 -0.0018582982 -0.00022728322 -0.002960081 0.0023802314 0.0014099418 -0.002554184 -0.0010126219 -0.00045136642 0.0007191263 0.00032167602 -0.0011106657 -0.0038687787 0.0027390271 0.0023692776 0.0037198793 -0.0030380082 -0.003737392 0.0020630872 -0.003669517 0.0011530262 0.00012694113 0.00033900607 7.86297e-05 -0.00147233 0.00094762724 0.0010059122 0.0036862213 -0.0004532975 -0.002674431 -0.00091862865 0.0049899193 0.00087927654 -0.0010205144 -0.00095648924 -0.0014129519 -0.004985671 0.0027450342 0.00417931 0.0005003838 0.0004994334 0.0022736685 0.0022116 -0.0049191043 0.0035455534 -0.0034485173 -0.00028924597 0.0036286023 0.00046465686 0.0010324074 -0.004864172 0.00041449955 -0.0045050373 0.0039043669 0.0034047933 0.004097389 -0.004446815 -0.0026129156 0.0016264785 0.002825087 0.0025749872 -0.0014989625 0.0016820733 0.00055503985 -0.0019104534 -0.0022171752 0.0032677753 -0.0027383077 0.0011942857 -0.0019376443 -0.0038142097 -0.0037111407 0.0026414432 0.0030297004 -0.0018903709 0.00079760095 -0.0013215779
笑话 0.003319745 -0.0033219564 0.0035892949 -0.00022550859 0.0022660745 0.00022040447 0.00081097474 0.0025488376 0.002758577 0.0041564107 0.0005894429 -0.004020488 0.00031932583 -0.0022017967 -0.0005395217 0.004111347 -4.7844835e-05 0.0007570316 -0.0014580993 -0.0025761842 -0.0019114076 0.0044664154 -0.0038425468 0.0017706179 0.0004768162 0.00038989028 0.0012595053 -0.00215581 0.003151426 0.00032532448 -0.003666386 0.001574236 -0.00038291374 0.00034699077 -0.0011663265 0.00058384286 -0.0048042177 -0.002058134 0.0018736268 -0.0008742362 0.0034906361 0.0035048528 0.00043499423 -0.0007169242 0.0012789392 -0.0026467764 -0.002205922 -0.002412663 0.0012853048 -0.004663743 -0.0001638215 -0.00157749 0.003623073 0.0047032787 0.0038176486 0.0032364205 -0.0023786644 0.0014963723 -0.001719442 -0.0039958237 -0.0016910534 -0.0012305127 -0.00066672126 -0.0016085308 0.0008718162 -0.0049246005 -0.0017579638 -0.000571955 0.002455141 -0.001995008 -0.004050979 -0.0044832416 0.0048262486 0.004787408 0.00018605217 -0.0020652742 -0.0024420677 0.00026605884 -0.004169882 -0.0035279398 -0.0003994489 -0.0047692484 -0.0048563825 -0.0039683487 -0.0013305449 -0.0014649797 -0.0027978008 0.004753894 -0.0006089513 1.4626421e-05 0.00082524586 -0.0040208213 -0.0030566596 0.0013098274 0.0004487182 -0.0014319068 -0.0018074715 -7.071812e-05 -0.0035176354 -0.00458002
如何 0.002243164 -0.0016087687 0.0047984244 0.0045665344 0.0025755577 -0.0018722194 -0.0040620635 0.0004016417 0.0027659652 0.0016197152 0.004979374 -0.0013689941 -0.0015349716 0.00020308839 0.0048746495 0.0030616783 -0.0023989659 0.0042477464 0.0017396966 -0.0038427513 -0.0007307152 0.0019378667 0.0013952856 0.0025889236 -0.0013416761 0.0016583274 0.0036700452 0.002851828 0.0022943038 0.0040142266 0.002422358 -0.0035916776 0.0043203905 0.00021851016 -0.0027885793 0.0020132707 0.0037655216 0.0031722067 -0.003248937 0.0034565572 0.0036720745 0.0035249274 0.0033408375 -0.003560862 -0.0008391659 -0.004089118 -0.00036833342 0.0032745162 0.0030526677 -0.001329127 -0.0024599193 -0.0036524248 -0.0043627364 0.00048672268 0.0030815098 0.00058773346 -0.0009521232 -0.0009451364 -0.0007209056 -0.0010810061 0.0007636822 0.004847017 0.00086701615 -0.0014279049 -0.00013664924 -0.00457993 0.0028565042 0.0046460405 0.00092761824 0.0017917673 0.0033521643 -0.003592916 0.004721036 -0.003934635 -0.0004687393 0.003863885 0.0017573638 0.0039237626 -0.00393565 -0.0046761744 0.00020859903 0.0036577405 0.0015542204 0.0041576894 -0.002822588 -0.0014239049 -0.0038895397 -0.0015057658 -0.001422869 0.0035918271 -0.0018858032 -0.003173877 0.0020553446 0.0042451033 -0.003663833 -0.0014437609 -0.004196052 -0.0012967079 0.0036861822 0.004106218
快速 -0.0047857505 -0.0033406937 -0.0008482663 -0.0013626008 -0.003583434 0.0047198664 0.004785968 0.004231385 -0.0014287615 -0.0020749748 0.0004550363 0.003930675 -0.0048965244 0.0042398795 0.0038662842 0.0018995209 0.0041088043 -0.0012205029 -0.003821576 -0.0045406306 -0.0032317864 -0.0007955092 0.000903741 0.0043071546 -0.0012675375 -0.0027819716 -0.003918064 0.0038605258 -0.002205321 0.000702668 0.0026734988 -0.0046822163 -0.0037614307 -0.00439913 -0.0017992186 -0.001471604 -0.0045516673 -0.0010830034 -0.0032015287 -0.004196942 0.0008088858 -0.00096174376 -0.0015813292 0.0024677715 0.0026920647 0.00038829166 0.0006347322 -0.003340364 0.0024743313 -0.0027932024 0.00088088866 0.003918279 -0.00010544434 0.004510615 -0.004576826 -0.0006648111 0.0020641792 0.0031830277 0.00022026338 -0.0043791234 -0.004646651 0.0021542036 0.004830043 -0.0014939446 0.0030782884 0.003919198 0.0026603136 -0.001890756 -0.0026927167 -0.004380882 -0.00061756605 -0.0023337489 -0.0027371787 -0.0043132 -0.000116107054 -0.0040617203 -0.0045501683 0.0017172634 0.004650248 -0.002901228 0.00016734237 -0.0037707905 -0.002387879 -0.004089324 -0.0018148499 0.0034703566 0.003058754 -8.238992e-05 -0.0035304439 -9.3436334e-05 0.0021571405 0.003631331 0.004499322 0.00012030825 -0.0017666798 -0.001769759 -0.004453064 -0.002210564 -0.00071355095 -0.0001783953
去除 0.0028663268 0.0043118494 -0.0020614439 0.0022432418 0.00031575141 0.0010766671 0.004625572 0.003002787 -0.0024930877 0.0026349067 0.0004886822 -4.883716e-05 -0.0041397517 0.001732864 -0.0013572741 -0.0041116774 0.0049796524 0.001247257 0.0029998496 -0.001013142 0.00034883758 0.0037741652 5.004881e-05 -0.0024912888 -0.003722617 8.122856e-05 0.0032543894 -0.0043584453 -0.003286568 -0.0012482482 -0.003988053 0.00043600798 0.0026095826 -0.0033420003 -0.0030364697 0.0034814915 0.0048907455 -0.0012128961 9.473413e-06 -0.0023711866 0.0040673567 -0.00033925194 -0.002961893 0.0029206285 -0.0025854534 0.0019738106 -0.0044553303 0.0018501184 0.0043273736 -0.0018262814 -0.0037848614 -0.0031162375 0.0011987309 0.0038957056 0.0006367946 -0.0049903337 0.0016340595 0.00071946904 -4.9412716e-05 -0.0047264546 0.0007726974 0.0003492511 -0.0030101133 -0.004931354 0.001223308 -0.0018527459 -0.0012842948 0.004000321 -0.0045189997 -0.00011030026 -0.0034490072 0.0008160048 0.00424397 0.0010271035 0.0037456444 -0.0007278444 -0.004113349 -0.001792816 -0.002344293 -0.0032402412 -0.0003923704 4.7692563e-05 -0.0046018795 -0.0032036572 0.000595246 -0.0028262655 0.0032992493 -0.00045524724 0.00035754498 0.00020587724 0.00203982 0.0048755836 0.0015580435 0.0027434467 0.0034206342 -0.0019112478 -0.002933436 0.0009774123 0.0044812458 -0.0030903928
前 -0.0030873744 0.00026531285 -0.0033545694 0.00069226185 -0.0044252127 0.0046028513 -0.00081761554 0.003737704 0.0023858128 -0.00087283365 0.001582304 -0.0011156606 -0.00021109683 -0.0028990083 -0.0012698828 -0.0043692873 -0.004527274 -0.0046354714 -0.0013501584 -0.003034097 0.0022178493 0.0015076706 0.0018144418 0.00028301124 -0.0007368196 0.0006725765 -0.0044947034 -0.0026395707 -0.00037491182 -0.0038733785 -0.004203199 0.0026936922 -5.1978976e-05 0.0012287283 -0.000505019 -0.00040469272 0.0004433249 0.0017378051 -0.0024406873 -0.0012270515 0.0042810645 -0.0010158764 -0.002995836 0.0037405994 -0.004449794 -0.00492204 0.0042266734 -0.0045248056 -0.0030584817 -0.0008404078 0.0028846804 -0.0029215722 0.001808831 0.0045300955 -0.003952693 0.00054547377 -0.0043849386 -0.003205976 0.0047181193 -0.0020867418 0.001963167 -0.0031051366 0.0016920138 -0.004783903 0.0025950326 0.00044950284 -0.0020280255 0.0011417149 0.004036473 0.002992196 0.0009569102 0.0008231462 -0.00029719248 -0.0031617582 -0.0048821843 -0.0047841123 -0.00029930286 -0.0030152313 -0.0021924598 0.00058382377 0.0012842636 -0.004616493 -0.004389668 0.004012132 0.0034013595 0.002715866 -0.0039046267 0.002236545 -0.0030948645 -0.000648601 0.002065388 -0.004020003 0.0006567198 -0.0008610431 -0.0031330578 0.002988426 0.0047753807 0.0018250234 0.0027757883 -0.0020442205
挡风 -0.0015848195 -0.002715324 0.0024344241 0.0022555618 0.002847122 -0.0037746392 -0.00087120105 -0.004688387 -0.002186541 0.0011524213 -0.0015257669 -0.0017685902 0.0027702223 0.0026402627 -0.0020531558 0.0008114241 0.003951665 0.0011462481 0.0033521578 0.0015706648 0.004704552 -0.0033628792 0.0025045057 0.004129202 -0.0038759648 -0.0020282315 -0.00039585168 0.0031818077 -0.0025779724 0.0023712185 -0.0035229658 0.0028461674 0.0037920196 0.00092822546 0.002320643 0.00277068 0.0047591003 0.0049375826 -0.00038322015 0.0030707438 -0.00056036003 -0.00027672527 -0.0038894855 0.000656222 0.00061459886 -0.0020298355 0.002508917 -0.0039576627 0.0047318097 0.00016890466 0.0003994517 0.00012673903 -0.0031466626 0.00059110345 -0.0044475165 -0.003313893 -0.0032971571 -0.0029222774 0.0021694563 0.00021295017 0.0010757507 0.0031684432 0.004212265 0.0044808593 0.0041691093 6.444985e-05 -0.00041454658 0.0010385215 0.0017328942 -0.004626426 0.002366132 0.003837849 0.0009909654 0.00027175387 -0.003066657 0.0014004232 -0.0034302822 -0.0039939797 0.0030690571 -0.0037761359 -0.0015368778 -0.0014674247 -0.0043705124 0.00096014 0.0042817816 -0.0020018208 -0.0010149437 0.0049779015 -0.0039907545 0.00079055317 -0.0043971813 0.0013344134 0.00291258 0.0036098193 -0.00097487494 0.0022916608 0.0029921886 0.0025058244 0.0033338694 0.00050019333
玻璃 -0.0016074711 -0.0026229273 -0.0021152615 0.0009988137 0.0015077535 0.0020689834 -0.00033161696 0.0049632126 -0.00043686526 -0.000588784 0.0005268771 -0.002559539 0.0043486767 0.0032129688 -0.0037867404 0.0036416547 -0.0043490725 0.0027395482 -0.00202447 0.002946348 0.00081045786 -0.0035574902 -0.00471798 0.002876252 -0.003524773 -0.002142129 0.00231663 -0.0017749388 0.0031116977 8.796761e-05 -0.0020108216 -0.0021392233 -0.0008698278 -0.0014475752 0.0022104946 0.0007760278 -0.002849567 0.0011520148 0.00043709343 0.003929805 0.0034046937 0.004430472 0.0034508277 -0.0033186793 0.0001856042 -0.0035162778 0.0018563233 -0.0029732352 -0.002457054 -0.0030559925 -0.0039100945 -0.0012983286 -0.0043085944 -0.003584256 0.0043867845 -0.002103787 0.004886861 -0.003366233 0.0007421714 0.004186566 0.0037796814 -0.00044048624 -0.0010631732 0.0006070924 0.0048767263 -0.0037842635 0.0007798127 -0.003441934 0.0046984814 -0.0025100017 0.00084788306 0.0036043385 0.0028749658 0.00026850402 -0.0006554378 0.00038862927 -0.0019174926 -0.0009498792 -0.0007004016 0.0035427054 0.00134798 0.003802212 0.0044474555 -0.0010396731 0.0027591106 0.00320441 0.004121339 -0.0017930614 -0.0018917785 0.0030954704 0.0034360625 0.00046646316 -0.0006567538 0.00044173235 -0.001948707 0.0023721508 0.001744946 -0.0022544705 0.004290833 0.0005684006
上 0.003633597 0.0046678213 -0.00033437135 -0.002459029 4.356727e-06 -0.0040183906 0.0011024731 0.0030459436 0.0030046357 0.0044548437 -0.0043644113 -0.001998815 -0.0016290837 -0.0019056094 0.0028218124 0.0008142716 0.0040943585 -0.0032385152 0.0010278588 -0.0020433695 0.0046171695 0.0048214775 -0.0042978353 -0.0023827516 -0.0019379801 -0.00062945485 -0.0045457557 -0.003723845 -0.0048667514 -0.0018121523 0.002847896 0.0006118077 0.0031709392 -0.0020450144 0.004730545 -0.0036288188 -0.004992877 -0.00038860273 0.002928488 -0.0033717654 -0.0021114151 -0.0026432257 0.003350053 -0.0019978033 0.00267968 -0.0036342042 0.004217129 -0.003972224 0.0014768201 0.0017198841 0.0025587846 -0.00081356056 -0.0006713844 -0.003054459 -0.00014102086 -0.004917452 0.00041434402 -0.00079520093 0.0014404627 -0.0043174755 -0.001567815 0.002735124 -0.002456942 0.0013555475 -0.0037915402 0.003298224 -0.002063443 -0.0033872162 -0.0027664942 0.004651623 -0.004869414 -0.0023423869 0.0045116227 0.0036645373 -0.0040669185 -0.004481686 0.0020935815 -0.004830114 0.0013337582 0.003093223 1.928769e-05 -0.00010604551 0.0013249153 0.00076751364 0.004443017 0.0041734595 -0.001765192 -0.0014686929 0.0006145984 0.00025617238 0.0049503865 -0.004032638 0.0025711525 0.0027277297 -0.0008575036 -0.003408336 0.0021422151 0.003736334 -0.00019395119 -0.0020248585
冰 -0.001486188 0.0021276814 -0.0022614305 -0.0028639107 -0.0021583897 -0.002899512 -0.0033043784 0.002178277 0.0001665717 0.00028914353 0.004800559 -0.0011546386 -0.0027758204 -0.00038873078 -0.0017405581 -0.00059516355 4.752772e-05 -0.004745603 -0.002922151 -0.0014109015 -0.0033206195 -0.0027884417 -0.0005366234 -0.004700977 -6.4172316e-05 -0.0032393192 -0.0045353384 -0.004042608 -0.0013518888 0.0003990573 0.0031446042 0.003136862 -0.0039865393 0.0035328083 0.0032405648 -0.002588336 -0.0016110707 -0.0024701708 0.0024500513 -0.004027897 -0.002271645 0.0005070134 -0.0019503809 0.0017067501 -0.0047371886 -0.0013745928 0.0023932261 0.0034457939 0.00094761467 -0.0016843402 -0.0023309402 -0.0032265875 -0.0036387919 0.0002847421 0.00043078233 -0.00037495373 0.0039546574 -0.0004028906 -0.0018407833 -0.004061035 -0.0045983256 0.0004224209 0.0024355417 -0.002000466 -0.002481305 0.0031968262 0.00062381616 -0.0011779559 0.003781435 0.0021311361 -0.004871397 0.003936046 -0.00026142364 0.0020826291 -0.000109582674 -1.8343795e-05 -0.00023886189 0.0041697472 -0.003505697 0.0007629795 -0.0049366676 0.000767244 -0.0007927255 0.00036325864 -0.002625627 0.0049041733 0.0021534753 0.0013072449 -0.0009807502 0.0031015826 0.0009949631 0.0025072028 -0.0003208625 0.00029165903 0.0032726098 0.0015555904 0.0042165443 0.004550974 -0.0035048728 -0.0040870546
发动机 -4.3597072e-05 -0.0018248837 -0.00095472764 -0.0007308312 0.0030645616 -0.0006111814 -0.0008315444 -0.0006648316 0.0049642706 0.0004369323 0.002204333 -0.0026626782 -0.0043021925 0.00081964023 0.0014284444 -0.0033069914 -0.0030470758 -0.0033693975 0.0006029671 -0.0021300523 0.0018497966 0.002187186 -0.003693787 0.0039030332 0.0015399824 0.00464671 0.0038282732 -0.0031113378 0.0031013265 -0.0002165963 -0.0012222372 -0.004274932 0.004318298 0.002281515 -0.0045212125 0.0025996128 -0.0032583522 -0.0022665362 0.0019452232 -0.002794916 0.0024779718 0.004299269 0.0044814674 0.0047689267 -0.0043080114 0.0042722756 0.0003449251 -0.00080319634 -0.0020814568 0.0018783929 -0.003544806 -0.0018412112 -0.0034338718 -0.002388398 0.0011781887 -0.0014219182 -7.213047e-05 0.0029304782 -0.0036408878 0.0039783465 -0.003660907 -0.002252609 0.00041081803 -0.0028423571 0.0020162063 -0.0014666843 -0.004720531 -0.0043732 -0.00189044 -0.0032178354 -0.0021573883 0.004148542 -0.004339002 -0.0036446017 -0.0028154086 -0.0032712715 -0.0046488326 0.00015778281 -0.00010541361 -0.0010087304 0.004947912 0.00444784 0.0024447683 0.0008711992 0.001636046 0.00063717086 0.0018139123 -0.0031051438 -0.0003435118 0.0039432254 -0.0012342918 0.0040978594 0.0039800927 -0.0034506314 -0.0019168793 -0.0031763338 2.029119e-05 -0.004022617 -0.004497385 0.003479666
漏 -0.0028162263 -0.0032759733 -0.000461692 -0.002984113 -0.0028119397 0.0009203153 -0.0019517629 0.0021068351 -0.000399434 0.00014894363 -0.001424622 0.0038299253 -0.0044076582 0.004533386 0.0036199 0.00087188836 -0.002229762 0.0022482518 0.0018490846 -0.002562403 0.00069146464 -0.0006869328 -0.0029261499 -0.0034675072 0.0012051677 -0.0020094193 -0.0023055146 0.00064089894 -0.004507567 0.0018314146 0.004449905 -0.0044910694 0.004523364 0.0029153703 0.00053710025 0.0017702142 -0.0010207039 -0.0013964791 0.0033391574 -0.0045959465 -0.0039355247 0.0045617074 -0.0037486572 -0.00060380297 -0.0009795302 0.0007177782 0.0037861709 -0.0026850682 -0.0015693777 0.0035120463 6.1767176e-05 -0.004522439 0.0030708741 -0.0012779247 -0.0048662024 -0.0004462232 0.0009063827 -0.0047170403 -0.003799396 0.0021211402 0.004528596 0.0006763255 -0.0035464452 -0.0047636745 0.00030637998 -0.0042547635 -0.0029939238 -0.0046830387 -0.0017118645 0.0022086538 0.0036375755 -0.0020337922 0.00348539 -0.0016524547 0.001908388 0.0037894892 0.003625622 -0.004044595 -0.0031224184 0.00061916094 -0.0010279636 0.004591494 0.00040850183 0.0013084705 -0.00030870177 -0.00020499481 0.0034418823 -0.0044401623 0.0017926586 0.0013952488 0.0048019243 0.004247592 0.0026468951 0.00095559796 -0.002260673 0.0035301996 -0.003322089 -8.134823e-05 -0.0035738996 -0.0044804667
油 -0.0026039623 -0.0049200496 0.0005656616 0.00042111753 -8.7454915e-05 0.0024505756 -0.002135818 0.002112452 0.00026616734 0.0033885324 0.00094492594 0.004707847 0.0014302474 -0.0028097844 -0.003242278 0.0016543712 -0.004451033 -0.0005263998 -0.004835927 -0.000698837 -0.003675841 -0.003051436 0.0003536446 -0.003872447 0.004873817 0.0038534012 0.0014149668 8.912338e-05 0.004014451 -0.0018665087 0.004797564 0.0013928926 0.0016491683 0.0020614848 0.00092150504 0.002944504 0.0023006545 0.004590122 0.0027820366 -0.0040373607 -0.0028065073 0.0023942855 -0.0022959125 -0.003726413 -0.00059758266 0.00085150637 0.0031020893 0.00077572605 -0.0018731046 -0.00226543 0.0032653753 -0.0008121715 -0.00020348094 0.003574296 0.0008825506 0.003925603 0.0019251732 -0.00095300376 0.0023072255 0.0043711932 0.0035095336 -0.00075663347 -0.00027476205 0.0003519482 -0.004846552 -0.004137538 0.0021157665 0.0032054204 -0.0042621344 -0.0040403334 -0.0046888394 -0.0010161414 0.0035090316 -0.004222625 -0.004415316 -0.0032265764 0.0043008216 -0.0008465862 0.002863327 0.002519446 -0.00091388216 -0.0023175995 -7.331651e-05 -0.003718276 0.00382685 0.0023787348 0.0027448651 0.0024905992 -0.0036963099 0.0037037237 -0.0018913895 0.004622896 -0.0027561379 0.0033842428 0.0011922498 0.004567655 0.0013098619 0.00090384204 -0.0039665536 -0.0010236241
， 0.0019460414 0.0028845174 0.0006296891 -0.0036078852 0.00036921445 0.0045277337 -0.0002643899 0.00300767 0.0026821452 -0.0022374343 -0.003654793 0.00469348 -0.0018510318 -0.0039975992 -0.003080688 0.0013174387 -0.0010803174 0.0015108539 0.0032448163 -0.0026536153 0.002833845 -0.0043518436 0.0023176009 0.0043560276 0.0004616892 0.003402763 0.0006466671 -0.0031991838 0.0015334534 0.0017863284 0.0026888554 0.004981785 0.0015234081 0.0040064324 -0.0047179805 -0.00036351243 0.004868808 -0.0032519042 0.0012668357 -0.0019382292 0.00466921 -0.0014731651 0.0023571397 0.0034339018 0.004305809 0.0035845628 -0.0004058238 0.0010244874 2.7332455e-05 0.0019075745 -0.0009790934 -0.0013863605 -0.0042807222 -0.0045088963 0.00028963434 0.0019957037 -0.0012334662 0.00072364043 5.644746e-05 -7.461663e-05 -0.0016204088 0.0007162113 0.0013200939 -0.0034913705 -0.0014197808 -0.00126589 -0.0014611566 -0.0016827779 0.0035208939 0.0036008088 -0.0029567236 -0.0030610655 0.003700601 0.002536722 7.871911e-05 -0.004159842 -0.0016438537 0.0039026756 9.568874e-05 -0.002087863 0.003640378 0.002793104 -9.919517e-06 -0.0025050843 0.004224194 -0.0001073773 -0.003095936 0.0041496493 0.00025179377 -0.0015918296 0.0020407396 -0.004399159 0.0025215447 -0.00013170484 0.0016420912 0.0036999956 -0.0035918183 0.0049878797 0.0049297316 0.0015156213
问题 -0.0025235938 -0.0018596458 0.0035515092 -0.0013656318 -0.0043666894 0.0043063965 0.004281913 0.002176934 -0.0042752433 0.0011613071 0.003969743 0.004627019 -0.0044916025 6.421935e-05 -0.0019475955 0.0020759618 -0.004143251 0.0024468075 -0.0017297287 -0.00387285 -0.0013712274 0.0012583793 -0.0036135274 0.0013323305 -0.004335365 -0.0017824643 0.0026595509 -0.0021160424 0.0004736078 0.003624213 -0.0005011163 0.0013723248 0.004832509 -0.0016070306 0.004986543 0.002848656 0.0039130403 0.00084745185 -0.003275984 0.0028632442 -0.002288862 -0.002880534 0.00093999086 -0.0008308501 -0.0021001785 0.00019698404 0.0018545864 -0.0019820826 0.0021479786 -0.0036672878 0.0016981671 0.0019037956 0.002711079 -0.003972238 -0.0012690406 0.004965826 0.004528829 -0.0005874778 -0.0029896926 0.004635212 0.0008293586 -0.0005720202 0.0016805697 0.0044532157 -0.0003539701 0.002287928 0.00089360354 0.0030966215 -0.00390762 -0.00049058255 -0.0026342194 0.0004283823 0.0042631496 0.0007837848 0.003532039 -0.004906755 -0.002454062 0.0041349884 -0.0006518904 0.00023983372 0.003899308 0.0011816444 -0.0037720304 -0.00030615507 -0.0035394193 0.0032502068 0.004000212 -0.0013382202 5.0679315e-05 0.00155003 -0.0025049532 0.0035119792 0.0049739107 0.0035685096 -0.0040262896 -0.0048094844 0.0018294607 -0.0022180474 0.004654113 0.004787446
大 -0.0036184979 0.002484629 0.0022409023 0.003401977 -0.0048937183 0.0038736854 0.0026302473 0.004662581 0.00081636384 -0.0031397217 0.00204293 0.0044169584 -0.0046157697 -0.0037472085 -0.0012322599 0.00019129459 -0.0011759961 -0.0025817847 0.00023040595 0.0034025675 -0.002489016 -0.0020740686 0.0045102723 -0.0043459027 -4.820712e-05 1.2414064e-05 0.00056190975 0.0012789499 0.0014699819 -0.0014395791 0.0012636064 -0.0018924586 0.0033195224 0.0013589775 -0.004187765 -0.0022627008 -0.0037273013 0.0013905829 -0.0010372568 0.0028741201 -0.0022834055 -0.0045364206 -0.0006362321 -0.004850252 0.00037610112 0.0010974985 0.00011964096 0.0008803392 -0.00095928414 -0.0015016925 0.0019593392 -0.004151231 -0.0027194868 0.002330104 -0.0004564249 0.0029899338 -0.0030090618 -0.004453253 -0.0028491223 -0.003803566 -0.0016407848 -0.0043208553 0.003946935 -0.0006776275 0.004578569 0.0042303577 0.004185736 -0.0010756296 -0.0027144712 -5.644327e-05 0.0001953314 -0.0049445145 -0.004952889 -0.0047756145 0.0029605636 0.0021884223 -0.0042216675 0.004383321 -0.0009444598 -0.0038103168 -0.001413573 -0.00020892778 -0.003445105 0.0037852703 0.00029620575 0.0017535319 -0.002003395 0.0043073753 0.004526575 -0.001679952 0.0030668024 0.0019951998 -0.0042657913 -0.00090552866 -0.0048271203 0.0013024411 0.0003879331 0.0015411521 -0.0016888075 0.0009824084
吗 -0.0025003206 -0.0040961765 0.0008389829 -0.0044417917 -0.002263763 0.0011890014 0.0005149315 -0.003990067 -0.002233861 0.002427727 -0.0020802533 0.0008521569 -0.0008068695 -0.0013342553 -0.002684372 -0.000989452 0.0041852053 0.0029112455 0.0028413134 0.0021346272 -0.0049633794 0.0026378534 -0.00044910423 -0.0023317754 -0.00024138764 0.0043705516 -0.0012181068 0.00056310697 -0.0004963791 0.0008266503 -0.0010714321 -0.003619079 0.001268168 -0.0015088026 0.000165103 0.00343417 0.0044091 -0.0031524985 0.0010462152 0.0030428814 -0.0019955772 -0.002723891 0.0027027153 0.00020302832 -0.0019714944 0.0012626876 0.004602907 0.0049280627 -0.0028462945 -0.0021015208 0.0017434643 0.0029429877 -0.004869494 0.0011758809 -0.0037164586 -0.0014180541 -0.0032379585 -0.0028495656 -0.0041411794 -0.004235419 -0.0030857897 -0.0016978849 0.0006003296 -0.00403645 -0.004961283 0.00091536297 -0.002487545 0.0042868406 0.0014305301 -0.004851009 -0.0041508125 0.004434691 0.0049527045 0.003027347 0.0042372914 0.0004641097 -0.0029766231 0.0009147739 -0.0013129145 0.0012763874 0.0026113046 0.004837542 -0.0016022681 0.0030859848 0.0046430053 0.003248483 0.0033127172 -0.001971113 0.0005865055 0.0032695327 -0.0013340192 0.00056862785 0.004908044 0.0010771481 -0.002641856 -0.001845646 -0.0013661801 -0.0030416893 -0.00084721344 -0.0041173217
